<?xml version="1.0"?>
<opencv_storage>
<cascade>
  <stageType>BOOST</stageType>
  <featureType>HAAR</featureType>
  <height>64</height>
  <width>64</width>
  <stageParams>
    <boostType>GAB</boostType>
    <minHitRate>9.9900001287460327e-01</minHitRate>
    <maxFalseAlarm>5.0000000000000000e-01</maxFalseAlarm>
    <weightTrimRate>9.4999999999999996e-01</weightTrimRate>
    <maxDepth>1</maxDepth>
    <maxWeakCount>100</maxWeakCount></stageParams>
  <featureParams>
    <maxCatCount>0</maxCatCount>
    <featSize>1</featSize>
    <mode>ALL</mode></featureParams>
  <stageNum>2</stageNum>
  <stages>
    <!-- stage 0 -->
    <_>
      <maxWeakCount>2</maxWeakCount>
      <stageThreshold>-4.5100545883178711e-01</stageThreshold>
      <weakClassifiers>
        <_>
          <internalNodes>
            0 -1 0 -2.4993489496409893e-03</internalNodes>
          <leafValues>
            7.1428573131561279e-01 -9.4771242141723633e-01</leafValues></_>
        <_>
          <internalNodes>
            0 -1 1 6.0901742428541183e-02</internalNodes>
          <leafValues>
            -1. 4.9670696258544922e-01</leafValues></_></weakClassifiers></_>
    <!-- stage 1 -->
    <_>
      <maxWeakCount>3</maxWeakCount>
      <stageThreshold>-1.0139806270599365e+00</stageThreshold>
      <weakClassifiers>
        <_>
          <internalNodes>
            0 -1 2 -3.3675373997539282e-03</internalNodes>
          <leafValues>
            6.2962961196899414e-01 -9.4127243757247925e-01</leafValues></_>
        <_>
          <internalNodes>
            0 -1 4 2.6559578254818916e-03</internalNodes>
          <leafValues>
            -8.6743128299713135e-01 7.0883095264434814e-01</leafValues></_>
        <_>
          <internalNodes>
            0 -1 3 1.8857505172491074e-02</internalNodes>
          <leafValues>
            -7.7617895603179932e-01 8.3718001842498779e-01</leafValues></_></weakClassifiers></_></stages>
  <features>
    <_>
      <rects>
        <_>
          13 33 6 4 -1.</_>
        <_>
          12 34 6 2 2.</_></rects>
      <tilted>1</tilted></_>
    <_>
      <rects>
        <_>
          25 15 22 36 -1.</_>
        <_>
          25 24 22 18 2.</_></rects>
      <tilted>0</tilted></_>
    <_>
      <rects>
        <_>
          37 25 2 16 -1.</_>
        <_>
          37 29 2 8 2.</_></rects>
      <tilted>0</tilted></_>
    <_>
      <rects>
        <_>
          50 39 12 10 -1.</_>
        <_>
          54 43 4 10 3.</_></rects>
      <tilted>1</tilted></_>
    <_>
      <rects>
        <_>
          53 27 6 6 -1.</_>
        <_>
          55 27 2 6 3.</_></rects>
      <tilted>0</tilted></_></features></cascade>
</opencv_storage>
